<?xml version="1.0"?>
<opencv_storage>
<cascade>
  <stageType>BOOST</stageType>
  <featureType>HAAR</featureType>
  <height>14</height>
  <width>50</width>
  <stageParams>
    <boostType>GAB</boostType>
    <minHitRate>9.9500000476837158e-01</minHitRate>
    <maxFalseAlarm>5.0000000000000000e-01</maxFalseAlarm>
    <weightTrimRate>9.4999999999999996e-01</weightTrimRate>
    <maxDepth>1</maxDepth>
    <maxWeakCount>100</maxWeakCount></stageParams>
  <featureParams>
    <maxCatCount>0</maxCatCount>
    <featSize>1</featSize>
    <mode>BASIC</mode></featureParams>
  <stageNum>6</stageNum>
  <stages>
    <!-- stage 0 -->
    <_>
      <maxWeakCount>2</maxWeakCount>
      <stageThreshold>-1.5550263226032257e-01</stageThreshold>
      <weakClassifiers>
        <_>
          <internalNodes>
            0 -1 8 2.7331676334142685e-02</internalNodes>
          <leafValues>
            -9.8306280374526978e-01 8.9343804121017456e-01</leafValues></_>
        <_>
          <internalNodes>
            0 -1 16 6.3624121248722076e-03</internalNodes>
          <leafValues>
            -8.5215628147125244e-01 8.2756018638610840e-01</leafValues></_></weakClassifiers></_>
    <!-- stage 1 -->
    <_>
      <maxWeakCount>2</maxWeakCount>
      <stageThreshold>-3.0361297726631165e-01</stageThreshold>
      <weakClassifiers>
        <_>
          <internalNodes>
            0 -1 11 7.8692495822906494e-02</internalNodes>
          <leafValues>
            -8.4973704814910889e-01 7.1214550733566284e-01</leafValues></_>
        <_>
          <internalNodes>
            0 -1 18 5.3593991324305534e-03</internalNodes>
          <leafValues>
            -8.4124255180358887e-01 5.4612404108047485e-01</leafValues></_></weakClassifiers></_>
    <!-- stage 2 -->
    <_>
      <maxWeakCount>4</maxWeakCount>
      <stageThreshold>-8.5423290729522705e-01</stageThreshold>
      <weakClassifiers>
        <_>
          <internalNodes>
            0 -1 20 3.0131703242659569e-03</internalNodes>
          <leafValues>
            -8.6330932378768921e-01 5.5555558204650879e-01</leafValues></_>
        <_>
          <internalNodes>
            0 -1 7 6.5651130862534046e-03</internalNodes>
          <leafValues>
            -9.3097913265228271e-01 4.3720158934593201e-01</leafValues></_>
        <_>
          <internalNodes>
            0 -1 1 1.4744644053280354e-02</internalNodes>
          <leafValues>
            -7.0357501506805420e-01 5.5595070123672485e-01</leafValues></_>
        <_>
          <internalNodes>
            0 -1 10 9.0705733746290207e-03</internalNodes>
          <leafValues>
            -8.9434456825256348e-01 3.8410490751266479e-01</leafValues></_></weakClassifiers></_>
    <!-- stage 3 -->
    <_>
      <maxWeakCount>6</maxWeakCount>
      <stageThreshold>-9.6197569370269775e-01</stageThreshold>
      <weakClassifiers>
        <_>
          <internalNodes>
            0 -1 2 8.3464812487363815e-03</internalNodes>
          <leafValues>
            -7.4721783399581909e-01 5.8702367544174194e-01</leafValues></_>
        <_>
          <internalNodes>
            0 -1 3 2.6038604974746704e-01</internalNodes>
          <leafValues>
            -5.2608686685562134e-01 6.5626007318496704e-01</leafValues></_>
        <_>
          <internalNodes>
            0 -1 15 -5.3503084927797318e-04</internalNodes>
          <leafValues>
            3.8493779301643372e-01 -9.2166769504547119e-01</leafValues></_>
        <_>
          <internalNodes>
            0 -1 12 3.6109020002186298e-03</internalNodes>
          <leafValues>
            -8.2496857643127441e-01 3.2712829113006592e-01</leafValues></_>
        <_>
          <internalNodes>
            0 -1 0 1.7122166231274605e-02</internalNodes>
          <leafValues>
            -6.7211437225341797e-01 4.1062793135643005e-01</leafValues></_>
        <_>
          <internalNodes>
            0 -1 21 -2.4695496540516615e-03</internalNodes>
          <leafValues>
            4.6499040722846985e-01 -6.4205378293991089e-01</leafValues></_></weakClassifiers></_>
    <!-- stage 4 -->
    <_>
      <maxWeakCount>5</maxWeakCount>
      <stageThreshold>-5.3833371400833130e-01</stageThreshold>
      <weakClassifiers>
        <_>
          <internalNodes>
            0 -1 14 -2.8038071468472481e-03</internalNodes>
          <leafValues>
            5.4973822832107544e-01 -6.5891474485397339e-01</leafValues></_>
        <_>
          <internalNodes>
            0 -1 22 3.3758342266082764e-02</internalNodes>
          <leafValues>
            -7.9770082235336304e-01 3.8212046027183533e-01</leafValues></_>
        <_>
          <internalNodes>
            0 -1 23 -6.9146314635872841e-03</internalNodes>
          <leafValues>
            4.6170189976692200e-01 -6.3328027725219727e-01</leafValues></_>
        <_>
          <internalNodes>
            0 -1 6 2.5144810788333416e-03</internalNodes>
          <leafValues>
            -8.9431220293045044e-01 2.4401532113552094e-01</leafValues></_>
        <_>
          <internalNodes>
            0 -1 5 2.8857327997684479e-03</internalNodes>
          <leafValues>
            2.2456742823123932e-01 -9.6725666522979736e-01</leafValues></_></weakClassifiers></_>
    <!-- stage 5 -->
    <_>
      <maxWeakCount>5</maxWeakCount>
      <stageThreshold>-5.8686721324920654e-01</stageThreshold>
      <weakClassifiers>
        <_>
          <internalNodes>
            0 -1 4 -9.5204934477806091e-03</internalNodes>
          <leafValues>
            5.6345731019973755e-01 -6.0495626926422119e-01</leafValues></_>
        <_>
          <internalNodes>
            0 -1 17 -5.5871070362627506e-03</internalNodes>
          <leafValues>
            3.7049558758735657e-01 -7.5504273176193237e-01</leafValues></_>
        <_>
          <internalNodes>
            0 -1 19 8.5196606814861298e-03</internalNodes>
          <leafValues>
            -7.7566188573837280e-01 3.4542089700698853e-01</leafValues></_>
        <_>
          <internalNodes>
            0 -1 9 4.3558124452829361e-03</internalNodes>
          <leafValues>
            -9.3424850702285767e-01 2.4248163402080536e-01</leafValues></_>
        <_>
          <internalNodes>
            0 -1 13 2.9314258135855198e-03</internalNodes>
          <leafValues>
            2.3642109334468842e-01 -9.7161591053009033e-01</leafValues></_></weakClassifiers></_></stages>
  <features>
    <_>
      <rects>
        <_>
          0 3 8 9 -1.</_>
        <_>
          4 3 4 9 2.</_></rects>
      <tilted>0</tilted></_>
    <_>
      <rects>
        <_>
          1 2 6 10 -1.</_>
        <_>
          4 2 3 10 2.</_></rects>
      <tilted>0</tilted></_>
    <_>
      <rects>
        <_>
          13 5 9 4 -1.</_>
        <_>
          16 5 3 4 3.</_></rects>
      <tilted>0</tilted></_>
    <_>
      <rects>
        <_>
          15 2 22 12 -1.</_>
        <_>
          15 6 22 4 3.</_></rects>
      <tilted>0</tilted></_>
    <_>
      <rects>
        <_>
          16 6 9 2 -1.</_>
        <_>
          19 6 3 2 3.</_></rects>
      <tilted>0</tilted></_>
    <_>
      <rects>
        <_>
          17 8 12 1 -1.</_>
        <_>
          23 8 6 1 2.</_></rects>
      <tilted>0</tilted></_>
    <_>
      <rects>
        <_>
          18 5 18 2 -1.</_>
        <_>
          24 5 6 2 3.</_></rects>
      <tilted>0</tilted></_>
    <_>
      <rects>
        <_>
          20 5 5 4 -1.</_>
        <_>
          20 7 5 2 2.</_></rects>
      <tilted>0</tilted></_>
    <_>
      <rects>
        <_>
          21 4 13 4 -1.</_>
        <_>
          21 6 13 2 2.</_></rects>
      <tilted>0</tilted></_>
    <_>
      <rects>
        <_>
          21 5 7 4 -1.</_>
        <_>
          21 7 7 2 2.</_></rects>
      <tilted>0</tilted></_>
    <_>
      <rects>
        <_>
          21 7 21 2 -1.</_>
        <_>
          28 7 7 2 3.</_></rects>
      <tilted>0</tilted></_>
    <_>
      <rects>
        <_>
          22 3 11 9 -1.</_>
        <_>
          22 6 11 3 3.</_></rects>
      <tilted>0</tilted></_>
    <_>
      <rects>
        <_>
          23 5 3 2 -1.</_>
        <_>
          23 6 3 1 2.</_></rects>
      <tilted>0</tilted></_>
    <_>
      <rects>
        <_>
          23 6 6 2 -1.</_>
        <_>
          23 7 6 1 2.</_></rects>
      <tilted>0</tilted></_>
    <_>
      <rects>
        <_>
          23 7 9 1 -1.</_>
        <_>
          26 7 3 1 3.</_></rects>
      <tilted>0</tilted></_>
    <_>
      <rects>
        <_>
          23 7 5 3 -1.</_>
        <_>
          23 8 5 1 3.</_></rects>
      <tilted>0</tilted></_>
    <_>
      <rects>
        <_>
          23 8 5 3 -1.</_>
        <_>
          23 9 5 1 3.</_></rects>
      <tilted>0</tilted></_>
    <_>
      <rects>
        <_>
          23 9 6 2 -1.</_>
        <_>
          23 10 6 1 2.</_></rects>
      <tilted>0</tilted></_>
    <_>
      <rects>
        <_>
          24 5 4 3 -1.</_>
        <_>
          24 6 4 1 3.</_></rects>
      <tilted>0</tilted></_>
    <_>
      <rects>
        <_>
          25 7 15 2 -1.</_>
        <_>
          30 7 5 2 3.</_></rects>
      <tilted>0</tilted></_>
    <_>
      <rects>
        <_>
          25 8 3 3 -1.</_>
        <_>
          25 9 3 1 3.</_></rects>
      <tilted>0</tilted></_>
    <_>
      <rects>
        <_>
          25 9 2 2 -1.</_>
        <_>
          25 10 2 1 2.</_></rects>
      <tilted>0</tilted></_>
    <_>
      <rects>
        <_>
          26 3 5 9 -1.</_>
        <_>
          26 6 5 3 3.</_></rects>
      <tilted>0</tilted></_>
    <_>
      <rects>
        <_>
          44 3 6 9 -1.</_>
        <_>
          47 3 3 9 2.</_></rects>
      <tilted>0</tilted></_></features></cascade>
</opencv_storage>
